[-2.17747785e-02  3.55567274e-01 -7.78384038e-02  8.43166294e-02
  1.81121728e-02 -3.52519769e-02  5.31686168e-02 -1.77459299e-02
  3.17099418e-02  6.98528924e-02 -4.14301858e-02 -2.43830019e-02
 -7.94489499e-02 -2.58264568e-02  1.77391021e-02 -9.78954248e-04
 -3.25539936e-02  9.37484000e-03  4.72628774e-02  2.04931604e-01
 -4.52590327e-02 -1.98959799e-02 -3.26912830e-02  2.86201201e-01
 -1.87297761e-01  2.77957326e-01 -2.70374079e-01  9.63287120e-02
  2.30185176e-01 -4.93271919e-01  5.06472168e-02  1.28395748e-01
  1.14775332e-02 -2.93877676e-02  6.24096372e-02  1.01411604e-02
 -9.95050696e-02  9.46850140e-02 -1.66323309e-02 -7.50299383e-02
 -1.01488481e-01 -1.36767033e-01 -3.60929126e-01 -2.28316548e-01
 -2.82472205e-01 -1.18324943e-01 -3.58182173e-01 -8.65897025e-01
  4.37301347e-02 -2.92654675e-02 -1.06511824e-01 -4.24071443e-01
  1.02076256e-01 -1.91838510e-01 -1.46842600e-01  2.52085625e-02
  8.46356667e-03 -6.27634021e-02  2.27498836e-01 -4.06770077e-01
 -5.72523056e-02 -4.40289009e-01 -4.08412514e-02 -1.59792188e-01
 -6.78670733e-01 -2.30203228e-01  1.31691299e-02 -8.17351361e-02
 -1.48090918e-01 -2.03812689e-01  8.64578288e-02 -7.25227316e-02
 -6.59462884e-02 -1.02135781e-02  3.06995529e-02  2.15507040e-04
  5.18371409e-01 -4.12523038e-01 -1.32740765e-02 -2.36645307e-01
 -1.04956798e-02 -6.34447192e-02 -5.58853683e-01 -5.28060838e-02
 -9.68504449e-03 -3.35483812e-02 -2.66604685e-02 -3.48268882e-02
  5.12157516e-03  1.97323415e-01 -9.40007781e-03 -1.97210080e-02
  5.09864765e-02  7.73339019e-02  5.41352568e-01 -2.84084394e-01
 -8.51504581e-03 -9.21384667e-02 -5.88518536e-03 -2.39872404e-02
 -2.76355048e-01 -1.75974658e-02 -2.12224350e-02  5.61632087e-02
  1.12890456e-02 -8.28390962e-03 -1.24841025e-01  2.92142155e-01
  5.39980745e-03  0.00000000e+00 -7.44446243e-01 -4.37460187e-01
  1.44298067e-02  4.35187535e-01  7.37658227e-01  3.73597075e-01
  4.10773647e-01  2.01268559e-03 -1.35473739e-01  7.79016888e-02
 -3.74708273e-01 -6.06595701e-02  2.91457947e-01 -1.56842625e-01
  1.39764716e-01  3.19232290e-02  0.00000000e+00  1.45458919e-01
 -4.90083623e-02 -1.31537518e-01  4.46123649e-03  0.00000000e+00
 -7.04311189e-02 -7.70279794e-02  1.15439338e-01  8.46715975e-03
  8.58366747e-03 -8.50312932e-02  5.18583453e-01  1.40172957e-01
  2.94733652e-01 -1.23111932e-01 -1.51272042e-01  4.58612636e-01
 -7.09559662e-01 -8.51212936e-02  1.64516055e-01 -1.24817569e-01
  4.36836318e-01  2.02111812e-01  5.00435677e-03 -2.61112675e-01
  1.77437268e-02  4.32424101e-01 -1.41751125e-01  1.49198677e-01
 -1.57370806e-01 -3.31144880e-01 -4.13269739e-01 -2.17384695e-01
 -2.62426908e-01 -1.41751125e-01  3.04409461e-01 -2.63566847e-01
  2.05453053e-01 -3.42355942e-02  6.38768232e-01 -2.37278153e-01
  5.76392026e-01  8.52296214e-01  1.04065076e-02 -1.73493366e-02
  7.76961691e-02 -1.03459359e+00 -2.32023894e-02  4.29275000e-03
  4.94100404e-02 -1.43748871e-01  3.68191384e-01  4.78889440e-02
 -1.62462898e-02 -2.39377273e-01  2.88133251e-01 -4.42717085e-02
  1.19182170e-02 -2.50026780e-01 -2.37985665e-01  3.38976398e-01
 -1.26717884e-01  4.57111899e-01  2.92655993e-01  5.72351025e-02
 -7.67493960e-02  1.65880146e-01 -1.06836588e+00  6.33392187e-02
 -6.66187395e-02  2.75199158e-01  2.86812653e-01  3.08246487e-01
 -6.49674306e-02  3.59783077e-02  6.12333794e-01 -1.61212161e+00
  1.95680178e-01 -6.85389660e-02 -4.26823627e-02  9.95647429e-02
 -4.07788099e-01 -3.91437106e-01  4.52904759e-01 -4.30139985e-01
  1.40050762e-02 -3.84574461e-03  1.01828180e-01  6.05570077e-02
 -2.94921536e-01 -1.67427005e-01 -5.39252174e-02  4.66544954e-01
 -3.82410663e-02 -4.06806845e-02 -1.51290295e-02  5.01409141e-02
 -3.18031340e-02 -3.59261905e-01 -9.72733471e-02  5.39935167e-02
  1.43870744e-01 -2.95937246e-01  1.34464469e-02 -4.99686092e-01
  4.02633292e-02  1.79893124e-01  2.47785478e-02 -4.18652167e-01
  1.10085539e-01 -3.14971595e-02  1.40572179e-01  1.72407458e-02
  5.46982919e-02 -3.80975934e-02 -6.96408050e-02 -4.33794784e-02
 -1.70770910e-02 -7.42669413e-02 -9.42650455e-02 -2.93991666e-01
  2.50184119e-01  1.38652756e+00  2.40238749e-01  8.43416506e-02
  7.07756091e-02 -5.06947111e-02  2.04365952e-01  7.12805345e-02
 -1.31899158e-02  1.37194708e-02  2.95110414e-03  8.71516309e-02
 -2.41979567e-01 -6.80134554e-02  1.26210858e-01 -2.85514854e-02
  5.41299441e-02  1.35275670e-01 -4.09842777e-02  1.44644548e-02
 -8.65793138e-03 -1.68918244e-01  4.24733788e-01  6.19493363e-02
  9.85826350e-02 -2.21051452e-02 -1.95040257e-02 -5.29023567e-01
 -6.62387538e-02 -1.40882195e-01  3.34319695e-02 -3.94246297e-03
 -2.59917770e-02  6.56233021e-02  1.20563895e-02 -4.62462507e-02
  3.47290470e-01  1.71344218e-01  1.64110503e-01  5.09678930e-02
 -9.14328804e-02 -9.03917178e-02 -1.23985047e-01 -6.04126741e-02
  3.73954035e-02 -8.88947101e-03  1.66771383e-02  4.51748559e-01
  9.06243708e-01 -2.58291100e-02  1.34874001e-01 -4.05684166e-02
 -5.44357632e-01 -2.81470619e+00 -5.14917415e-02  1.40756750e-02
 -1.76242777e-01  1.15347819e-03 -2.33810229e-01 -3.24156327e-02
 -4.78738881e-03 -4.83920092e-02 -1.22277311e-03  1.49120756e-01
 -7.23445028e-03 -2.18979986e-02  4.55051512e-01 -1.90258406e-01
 -2.34496883e+00 -2.08412549e+00  9.74368951e-03  1.98917934e-01
 -1.23455134e-01  1.51301965e-01 -1.87982803e-01 -3.71937541e-01
 -6.15040842e-02 -3.33609659e+00  5.47851630e-01  1.47732483e-01
  2.42093311e-01 -3.24939644e-01 -2.56946105e+00 -5.86633906e-02
  2.92689262e-01 -9.67597947e-02 -2.37110659e+00 -7.25192584e-01
 -1.77411003e-01 -5.00395981e-01 -1.90338977e-01 -6.65970104e-01
 -1.35788014e+00 -2.45192525e-01 -2.55689413e+00 -2.97165384e+00
  2.70365223e-01 -2.05309124e+00  6.94309850e-01 -7.09841695e-01
 -6.24689759e-01 -2.72285547e-01 -1.77894386e-01 -4.11173090e+00
 -1.84531643e+00 -1.02921720e-01 -2.56205616e+00 -2.13958092e+00
  6.57189832e-01  4.91261180e-02 -1.67585726e+00  6.71892068e-01
 -2.46284215e-02 -1.44181460e-01 -1.17104365e+00  1.03131851e+00
 -7.75140554e-01 -7.22560860e-01  2.89002687e-01 -4.99260016e-02
 -1.94061322e+00 -3.79663402e+00 -1.44822265e-01 -1.74095913e-01
 -7.39875502e-01 -3.35696661e-01  2.23957750e-01 -3.47103041e+00
  2.72181499e-01  7.52059118e-02  7.69697568e-02 -2.37079092e-01
 -2.50172713e+00 -1.97213585e-01 -3.73269048e-01  8.60021321e-02
 -2.50176708e-02  2.14201367e-01  3.07971478e-01 -1.86463798e-01
  3.29781994e-02  2.15642634e-02  7.68511250e-02 -1.35152810e-02
 -1.09068254e-02  2.02419328e-02  3.95325982e-02 -4.55361881e-01
  1.81311851e-02 -4.86705156e-02  1.61055773e-02 -1.10530728e-01
 -7.23743427e-02  4.51079298e-03 -3.68204668e-02  2.04456542e-02
 -2.82993310e-02  9.51885097e-02  1.16605267e-01  4.63220507e-02
  1.75182880e-01 -1.33498154e-01 -1.94142425e-01 -3.25364818e-01
 -5.20351440e-02 -4.62600200e-04 -2.21684043e-02 -1.74920068e-02
  3.86587589e-02 -3.54341958e-02  2.25886668e-02  5.00611498e-02
 -2.15631613e-01 -2.52792009e+00 -3.54341958e-02 -2.25774513e-02
  2.61927762e-01 -4.33937775e-02  6.81676525e-01 -1.87151823e+00
 -7.88543736e-03  1.51296823e-01 -1.08262666e-01  1.59479413e-01
 -7.88543736e-03  1.78723265e-01 -7.90164479e-02  1.01880499e-01
 -8.79224095e-01 -7.88543736e-03  7.18922680e-02 -3.14990992e-02
 -5.11925362e-01  5.10391518e-01 -1.75525565e-02 -4.44398843e-03
  2.13885267e-01  2.53222944e-02 -2.15834026e+00  6.91724085e-01
 -1.68654795e+00 -1.48155717e+00 -1.25767652e+00 -1.88584546e-02
  1.82649225e-01 -2.61093677e-01  3.12206499e-01 -1.12751755e+00
  8.24673554e-01 -1.25248592e+00 -1.33438017e+00 -1.88584546e-02
  2.11948576e-01 -2.84643185e-01 -6.25882147e-01 -2.01818378e-01
 -2.57201864e-02  1.08333172e+00 -1.30428349e+00 -3.24017907e-02
  2.27704062e-01  7.01455478e-01 -1.32824498e-01 -1.09477582e+00
 -1.16751228e+00 -4.05302558e-01 -1.03623104e+00 -1.30428349e+00
 -1.92576635e-02 -1.39292375e-01  1.55685101e-01 -1.01296604e+00
 -1.18484282e+00  0.00000000e+00 -1.94206037e-02  6.11652619e-04
 -1.97168330e-01  3.73751852e-02 -1.63273430e+00 -1.94206037e-02
  3.79879581e-02 -8.36906047e-02 -3.45255688e-01 -2.10190940e-02
 -2.15045078e-01  1.07953738e-01 -2.06777996e+00  6.15899350e-03
 -5.89897112e-02 -4.92260097e-02 -2.94153815e-01  4.02276581e-01
 -1.45982758e-03 -1.46829852e-01 -1.29356709e-01 -1.65097774e-02
  3.83198535e-02 -3.62356518e-02 -2.74780068e-01  9.09605720e-01
 -2.07268254e-02  1.05275028e-01 -4.95205110e-02  5.38934241e-02
 -1.20447989e-01  6.22424689e-02 -3.11587450e-01 -2.08928729e+00
 -2.17754157e-02 -1.42803349e-01  2.55786649e-01  8.04518233e-02
 -1.45562297e-01  4.46685037e-03 -1.87367969e-01  2.66833677e-01
 -4.03947097e-02 -1.53815747e-03 -1.34052477e-02  4.44051394e-02
  1.28761850e+00 -4.68970557e-02  5.10584285e-02  4.31890097e-02
  2.79987461e-03 -4.57228384e-01 -1.17376664e-02  1.77419456e-01
 -3.30166220e-01  6.73794859e-01  5.96948133e-01 -1.71338128e-02
  1.59889504e-01 -3.51915986e-01  1.21835835e+00 -1.72831909e-02
 -5.66295979e-01  2.38002885e-01  8.87283696e-01 -7.39095193e-01
 -1.89689573e-02  6.56238993e-01 -6.02277404e-01  0.00000000e+00
 -3.08112324e-02 -3.14288056e-01 -1.59036808e-01  2.70500033e-01
 -1.83945419e+00  4.78223440e-01  1.66943184e-02  8.13892112e-01
 -1.72831909e-02 -5.72325409e-01  5.31424325e-01  6.34523159e-02
 -2.08956149e+00  2.01416217e-01  2.74309171e-01 -1.72831909e-02
  4.12077333e-01 -1.08939117e+00  2.63712473e-01 -1.72117541e-01
 -1.78213611e+00 -1.58731319e+00 -1.45833568e+00  2.63022857e-01
  0.00000000e+00 -7.01693900e-01  6.06831539e+00  6.70335120e+00
  2.06054499e+00  1.78044549e+00  1.87506592e-02 -2.12371122e-01
 -7.52587739e-01 -1.25351935e+00  0.00000000e+00  6.16927550e-02
 -1.48552988e-01 -6.20908288e-01 -9.10775255e-01 -1.09981715e+00
  3.44464626e-02  1.58413478e-02 -5.05766670e-01 -5.18746338e-01
 -3.25095416e-01 -1.61486739e+00  4.84399674e-03 -7.60343048e-02
 -9.22831645e-02 -2.20857754e+00  1.04076176e+00  4.84399674e-03
  4.00828759e-02 -6.46611721e-01 -1.57763720e-01  0.00000000e+00
  4.84399674e-03 -1.52758485e-01 -3.56615547e-02 -1.54824873e-01
  1.30245986e+00 -1.47506890e-02  4.61342579e-02 -6.09573627e-02
  3.47630355e-03 -1.38776079e-01  3.36084315e-02 -2.77741680e-02
 -2.17074751e-02 -1.73844314e-01  5.49911398e-02  5.13134201e-01
 -6.94813938e-01 -2.28602773e-02  3.32801593e-02 -4.47919002e-02
 -3.74632795e-01 -6.93884214e-02 -3.30158683e-02 -1.88474946e-02
 -9.03719895e-02  3.00886842e-01  1.02086539e+00  6.30454836e-04
 -1.00719835e-01  7.66049446e-02 -5.63334342e-02 -1.10982249e-02
 -3.96697736e-01  1.01259236e+00 -3.63386591e-02 -6.02715380e-01
  3.24602695e-02  1.10258690e+00  9.22621714e-02 -2.30189419e+00
 -3.30671465e-02 -6.42719809e-02  9.19691235e-02  2.87228047e-02
 -1.76852697e+00 -2.92605149e-02 -3.74511885e-03 -3.46366933e-02
 -2.43475775e+00 -1.16657627e-01 -3.12318368e-02 -1.38240944e-01
  1.84887667e-01 -2.00281593e-01 -1.60965808e-02 -4.23061075e-02
  4.41118293e-01 -1.70871959e+00 -2.93818638e-02 -2.65127455e-02
  3.28771918e-02 -1.20686184e-01 -1.49193455e-01 -2.70577114e-02
 -7.28017448e-02 -2.58364579e-02  8.78718199e-02  1.90341726e-01
 -9.98128547e-02 -1.94939162e-01 -2.27084686e+00 -3.07303327e-02
 -2.89503103e-02  1.69919917e-03 -7.66851818e-02  1.47406156e-01
 -2.30264682e-02 -1.52917138e-01  8.47978458e-02 -6.89645339e-01
 -5.96533304e-02  1.79640847e-01  2.31762432e-01 -1.23431445e+00
 -2.24117411e-02 -2.91447160e-02 -1.27489109e-01 -2.44238471e+00
  9.86599719e-01 -1.68211205e-02 -5.65358920e-02 -2.00071350e-01
 -1.46246421e+00 -1.75832821e+00 -2.22113306e-02  6.80259097e-02
 -4.74374466e-01 -3.97622472e-01 -6.55824767e-01  4.73036830e-01
  6.81883421e-01 -1.31013201e+00 -4.45312642e-02 -2.09955943e-02
 -6.62560457e-02  3.31108694e-01  1.32971462e+00 -2.11749502e-02
 -1.14176639e-02  5.72606160e-03 -8.55380626e-02 -1.91359572e-01
 -2.01397479e-03 -1.87002589e-01  1.78457154e+00 -2.60057492e-02
 -6.03393007e-02 -3.80838335e-02  6.45777233e-01 -1.19592185e-01
 -1.18693574e-02 -9.05830207e-02 -2.63517211e-02  3.39394589e-02
 -6.67948450e-01 -1.18693574e-02 -7.16948921e-02 -6.49952658e-02
  1.55228699e-01 -9.55295396e-02 -9.79975168e-02  8.20807589e-02
 -1.44293801e-01 -1.53544673e-01 -3.20605332e-02 -1.42419509e-01
  2.33760055e-01  2.95163149e-01 -1.56847022e+00 -2.11981150e-02
 -2.00222070e-01  8.44601923e-02 -2.36416883e-02 -1.73476272e+00
 -8.11055977e-03  2.05454517e-01 -4.32873253e-01 -3.06729080e-01
 -1.61609092e+00 -8.11055977e-03 -3.49809955e-02 -8.23192674e-02
 -3.81290277e-01 -1.73476272e+00 -1.96859511e-02 -2.24046884e-01
  2.97547894e-01  2.50342368e-01 -1.52215145e-01  1.18347802e-02
 -1.15431340e+00  1.28597298e+00 -1.96859511e-02  5.29598167e-02
 -6.92077078e-01  8.57054961e-01 -1.13852933e+00  1.05092167e-01
  6.19459306e-01  0.00000000e+00 -2.14432350e-02 -1.14664289e-02
 -1.18559520e-01 -1.88630513e-01  3.56165968e-01  0.00000000e+00
 -9.46469906e-02  1.68275690e-01  5.24302434e-02  6.01200716e-02
  1.52180355e-02 -1.72137222e-02  7.51347598e-01 -2.36686864e-02
  2.89359280e-01  7.51677182e-03  1.33836347e-01 -1.79925408e-01
 -1.07915012e-01  6.42089759e-02 -5.39761099e-02 -1.64734098e-05
 -2.37729043e+00 -4.41145128e-01 -1.89408607e-02 -1.42019542e-01
 -9.79362644e-02 -2.57465235e-02  5.11705339e-02  9.34107227e-01
 -8.33912431e-01  2.12034487e-03 -6.34549636e-02 -1.44273504e-01
  1.22693426e-02 -1.33089743e-01  1.84630732e-01  3.08142143e-01
 -4.27323206e-02 -3.56639545e-02  8.75880647e-02 -5.20218760e-02
  5.03146159e-03  3.17427971e-01 -5.20348543e-02 -2.92286263e-03
  2.27722211e-02 -1.10610139e+00  6.32942338e-01 -5.84977944e-02
 -5.41651638e-04  5.20874294e-02  6.01413248e-04  3.53445393e-02
 -1.80646317e-01 -3.41071679e-01 -2.84046951e-02 -1.56254622e-01
  2.06226118e-01  2.94657032e-01 -1.87652130e-01  1.59361654e-01
  3.92443018e-02 -1.79649528e+00 -1.54716168e-01 -6.21210203e-02
 -7.38924115e-03  1.91188067e-02  7.31885723e-01  1.55986727e-01
 -2.53356607e-02  8.80995430e-02 -2.59192035e-01  2.05933346e-01
  0.00000000e+00 -1.63002871e-02  7.23504288e-02 -2.01734504e-01
 -5.84080133e-02 -6.74759908e-02 -3.58072288e-01  4.59086849e-02
  1.25612225e-01 -1.65956762e-02  1.39479413e-01  9.85784622e-03
 -1.88288418e-01 -7.58793053e-01 -5.43704265e-02 -6.89335389e-01
 -3.99354330e-02 -2.33940198e-02  6.69336085e-02  1.29803345e-01
  4.39612068e-01 -2.74413554e-02  1.06286341e-01 -1.19161860e-01
  1.87196536e-01  8.97541454e-01]